<?xml version="1.0"?>
<opencv_storage>
<cascade>
  <stageType>BOOST</stageType>
  <featureType>HAAR</featureType>
  <height>95</height>
  <width>40</width>
  <stageParams>
    <boostType>GAB</boostType>
    <minHitRate>9.9000000953674316e-01</minHitRate>
    <maxFalseAlarm>1.0000000149011612e-01</maxFalseAlarm>
    <weightTrimRate>9.4999999999999996e-01</weightTrimRate>
    <maxDepth>1</maxDepth>
    <maxWeakCount>100</maxWeakCount></stageParams>
  <featureParams>
    <maxCatCount>0</maxCatCount>
    <featSize>1</featSize>
    <mode>ALL</mode></featureParams>
  <stageNum>14</stageNum>
  <stages>
    <!-- stage 0 -->
    <_>
      <maxWeakCount>3</maxWeakCount>
      <stageThreshold>4.9318104982376099e-01</stageThreshold>
      <weakClassifiers>
        <_>
          <internalNodes>
            0 -1 53 -1.5874774544499815e-04</internalNodes>
          <leafValues>
            -1. 4.4927537441253662e-01</leafValues></_>
        <_>
          <internalNodes>
            0 -1 5 -8.2769490778446198e-02</internalNodes>
          <leafValues>
            9.6228927373886108e-01 -5.2358680963516235e-01</leafValues></_>
        <_>
          <internalNodes>
            0 -1 41 -3.0532808159478009e-04</internalNodes>
          <leafValues>
            -8.9414471387863159e-01 5.6749254465103149e-01</leafValues></_></weakClassifiers></_>
    <!-- stage 1 -->
    <_>
      <maxWeakCount>5</maxWeakCount>
      <stageThreshold>5.1624625921249390e-01</stageThreshold>
      <weakClassifiers>
        <_>
          <internalNodes>
            0 -1 16 -2.6476525817997754e-05</internalNodes>
          <leafValues>
            -7.3333334922790527e-01 6.0000002384185791e-01</leafValues></_>
        <_>
          <internalNodes>
            0 -1 37 -3.7988470285199583e-04</internalNodes>
          <leafValues>
            -8.2649600505828857e-01 5.4831784963607788e-01</leafValues></_>
        <_>
          <internalNodes>
            0 -1 1 -9.0143144130706787e-02</internalNodes>
          <leafValues>
            9.1364836692810059e-01 -5.9990906715393066e-01</leafValues></_>
        <_>
          <internalNodes>
            0 -1 63 -1.2134455027990043e-04</internalNodes>
          <leafValues>
            -9.7808820009231567e-01 5.1992374658584595e-01</leafValues></_>
        <_>
          <internalNodes>
            0 -1 6 -4.4571436941623688e-02</internalNodes>
          <leafValues>
            9.1138660907745361e-01 -5.5208623409271240e-01</leafValues></_></weakClassifiers></_>
    <!-- stage 2 -->
    <_>
      <maxWeakCount>4</maxWeakCount>
      <stageThreshold>3.1373983621597290e-01</stageThreshold>
      <weakClassifiers>
        <_>
          <internalNodes>
            0 -1 4 -6.8931533023715019e-03</internalNodes>
          <leafValues>
            8.3783781528472900e-01 -4.9206349253654480e-01</leafValues></_>
        <_>
          <internalNodes>
            0 -1 25 -2.8229292947798967e-03</internalNodes>
          <leafValues>
            7.2764664888381958e-01 -5.1488244533538818e-01</leafValues></_>
        <_>
          <internalNodes>
            0 -1 30 1.2112051081203390e-05</internalNodes>
          <leafValues>
            6.7995977401733398e-01 -6.3805085420608521e-01</leafValues></_>
        <_>
          <internalNodes>
            0 -1 22 -1.6929488629102707e-04</internalNodes>
          <leafValues>
            7.1620750427246094e-01 -5.6736946105957031e-01</leafValues></_></weakClassifiers></_>
    <!-- stage 3 -->
    <_>
      <maxWeakCount>5</maxWeakCount>
      <stageThreshold>2.6693469285964966e-01</stageThreshold>
      <weakClassifiers>
        <_>
          <internalNodes>
            0 -1 44 2.0928639918565750e-02</internalNodes>
          <leafValues>
            -5.4098361730575562e-01 8.4615385532379150e-01</leafValues></_>
        <_>
          <internalNodes>
            0 -1 48 -9.0285859187133610e-05</internalNodes>
          <leafValues>
            -8.8429492712020874e-01 4.8091807961463928e-01</leafValues></_>
        <_>
          <internalNodes>
            0 -1 29 -3.2658077543601394e-04</internalNodes>
          <leafValues>
            -9.2463189363479614e-01 4.4356960058212280e-01</leafValues></_>
        <_>
          <internalNodes>
            0 -1 24 -2.7317353524267673e-03</internalNodes>
          <leafValues>
            -7.3149788379669189e-01 5.8621436357498169e-01</leafValues></_>
        <_>
          <internalNodes>
            0 -1 23 4.3168519623577595e-03</internalNodes>
          <leafValues>
            6.2226533889770508e-01 -7.0278376340866089e-01</leafValues></_></weakClassifiers></_>
    <!-- stage 4 -->
    <_>
      <maxWeakCount>3</maxWeakCount>
      <stageThreshold>5.4435807466506958e-01</stageThreshold>
      <weakClassifiers>
        <_>
          <internalNodes>
            0 -1 20 -1.6187610104680061e-02</internalNodes>
          <leafValues>
            9.3548387289047241e-01 -4.2028984427452087e-01</leafValues></_>
        <_>
          <internalNodes>
            0 -1 35 -6.0662681789835915e-05</internalNodes>
          <leafValues>
            -8.9952015876770020e-01 5.3364843130111694e-01</leafValues></_>
        <_>
          <internalNodes>
            0 -1 0 -1.8591357767581940e-01</internalNodes>
          <leafValues>
            -9.1913169622421265e-01 5.0839436054229736e-01</leafValues></_></weakClassifiers></_>
    <!-- stage 5 -->
    <_>
      <maxWeakCount>5</maxWeakCount>
      <stageThreshold>-1.6247674822807312e-01</stageThreshold>
      <weakClassifiers>
        <_>
          <internalNodes>
            0 -1 12 -2.1075067343190312e-04</internalNodes>
          <leafValues>
            6.8888890743255615e-01 -5.6363636255264282e-01</leafValues></_>
        <_>
          <internalNodes>
            0 -1 18 -4.1568977758288383e-03</internalNodes>
          <leafValues>
            9.5887774229049683e-01 -4.8703595995903015e-01</leafValues></_>
        <_>
          <internalNodes>
            0 -1 45 -1.1860254453495145e-03</internalNodes>
          <leafValues>
            7.5704413652420044e-01 -5.3980326652526855e-01</leafValues></_>
        <_>
          <internalNodes>
            0 -1 57 -7.9494956880807877e-03</internalNodes>
          <leafValues>
            9.7172254323959351e-01 -4.3980082869529724e-01</leafValues></_>
        <_>
          <internalNodes>
            0 -1 10 -1.1412697858759202e-05</internalNodes>
          <leafValues>
            -8.7424993515014648e-01 5.7095223665237427e-01</leafValues></_></weakClassifiers></_>
    <!-- stage 6 -->
    <_>
      <maxWeakCount>4</maxWeakCount>
      <stageThreshold>4.0477979183197021e-01</stageThreshold>
      <weakClassifiers>
        <_>
          <internalNodes>
            0 -1 26 -4.2651589028537273e-03</internalNodes>
          <leafValues>
            1. -3.6986300349235535e-01</leafValues></_>
        <_>
          <internalNodes>
            0 -1 49 -2.2018468007445335e-04</internalNodes>
          <leafValues>
            7.6479637622833252e-01 -6.2116014957427979e-01</leafValues></_>
        <_>
          <internalNodes>
            0 -1 55 1.5921297017484903e-04</internalNodes>
          <leafValues>
            -7.0316225290298462e-01 7.7123552560806274e-01</leafValues></_>
        <_>
          <internalNodes>
            0 -1 54 -7.6616532169282436e-04</internalNodes>
          <leafValues>
            7.5910639762878418e-01 -6.5685433149337769e-01</leafValues></_></weakClassifiers></_>
    <!-- stage 7 -->
    <_>
      <maxWeakCount>4</maxWeakCount>
      <stageThreshold>2.4417464435100555e-01</stageThreshold>
      <weakClassifiers>
        <_>
          <internalNodes>
            0 -1 9 -7.1263045072555542e-02</internalNodes>
          <leafValues>
            1. -3.6986300349235535e-01</leafValues></_>
        <_>
          <internalNodes>
            0 -1 47 4.0878778236219659e-05</internalNodes>
          <leafValues>
            5.8798772096633911e-01 -7.6065391302108765e-01</leafValues></_>
        <_>
          <internalNodes>
            0 -1 15 -1.0551721788942814e-03</internalNodes>
          <leafValues>
            6.8765681982040405e-01 -6.6913610696792603e-01</leafValues></_>
        <_>
          <internalNodes>
            0 -1 39 -1.2687720358371735e-02</internalNodes>
          <leafValues>
            6.9518607854843140e-01 -6.4865833520889282e-01</leafValues></_></weakClassifiers></_>
    <!-- stage 8 -->
    <_>
      <maxWeakCount>6</maxWeakCount>
      <stageThreshold>1.5244767069816589e-01</stageThreshold>
      <weakClassifiers>
        <_>
          <internalNodes>
            0 -1 21 2.3182513541541994e-04</internalNodes>
          <leafValues>
            3.1578946113586426e-01 -1.</leafValues></_>
        <_>
          <internalNodes>
            0 -1 60 6.4909087086562067e-05</internalNodes>
          <leafValues>
            -6.9393807649612427e-01 5.7114899158477783e-01</leafValues></_>
        <_>
          <internalNodes>
            0 -1 65 -4.7089066356420517e-03</internalNodes>
          <leafValues>
            9.2923802137374878e-01 -4.4473421573638916e-01</leafValues></_>
        <_>
          <internalNodes>
            0 -1 56 -1.1576591532502789e-05</internalNodes>
          <leafValues>
            -5.1347780227661133e-01 7.5621634721755981e-01</leafValues></_>
        <_>
          <internalNodes>
            0 -1 11 6.1953258409630507e-05</internalNodes>
          <leafValues>
            7.0376330614089966e-01 -6.1186796426773071e-01</leafValues></_>
        <_>
          <internalNodes>
            0 -1 19 4.2571657104417682e-04</internalNodes>
          <leafValues>
            -5.3838306665420532e-01 8.6790674924850464e-01</leafValues></_></weakClassifiers></_>
    <!-- stage 9 -->
    <_>
      <maxWeakCount>4</maxWeakCount>
      <stageThreshold>3.1959503889083862e-01</stageThreshold>
      <weakClassifiers>
        <_>
          <internalNodes>
            0 -1 13 -4.0135666495189071e-04</internalNodes>
          <leafValues>
            9.2857140302658081e-01 -3.6111110448837280e-01</leafValues></_>
        <_>
          <internalNodes>
            0 -1 34 8.1193502410314977e-05</internalNodes>
          <leafValues>
            4.7062098979949951e-01 -7.5934153795242310e-01</leafValues></_>
        <_>
          <internalNodes>
            0 -1 59 -1.2552484404295683e-03</internalNodes>
          <leafValues>
            7.5848102569580078e-01 -5.8046042919158936e-01</leafValues></_>
        <_>
          <internalNodes>
            0 -1 38 7.7640946255996823e-04</internalNodes>
          <leafValues>
            -4.9913692474365234e-01 8.6781311035156250e-01</leafValues></_></weakClassifiers></_>
    <!-- stage 10 -->
    <_>
      <maxWeakCount>6</maxWeakCount>
      <stageThreshold>1.1089589446783066e-01</stageThreshold>
      <weakClassifiers>
        <_>
          <internalNodes>
            0 -1 43 -5.3270930948201567e-05</internalNodes>
          <leafValues>
            -8.1818181276321411e-01 4.0298506617546082e-01</leafValues></_>
        <_>
          <internalNodes>
            0 -1 33 2.9085052665323019e-04</internalNodes>
          <leafValues>
            6.2514638900756836e-01 -6.3726514577865601e-01</leafValues></_>
        <_>
          <internalNodes>
            0 -1 61 -1.9155300687998533e-03</internalNodes>
          <leafValues>
            8.7146019935607910e-01 -4.7500130534172058e-01</leafValues></_>
        <_>
          <internalNodes>
            0 -1 3 -2.1801325783599168e-04</internalNodes>
          <leafValues>
            7.8850954771041870e-01 -6.2825167179107666e-01</leafValues></_>
        <_>
          <internalNodes>
            0 -1 28 2.5671513867564499e-05</internalNodes>
          <leafValues>
            -5.8929848670959473e-01 7.2483593225479126e-01</leafValues></_>
        <_>
          <internalNodes>
            0 -1 64 6.9848337443545461e-04</internalNodes>
          <leafValues>
            -5.7114559412002563e-01 8.2028716802597046e-01</leafValues></_></weakClassifiers></_>
    <!-- stage 11 -->
    <_>
      <maxWeakCount>5</maxWeakCount>
      <stageThreshold>4.0444844961166382e-01</stageThreshold>
      <weakClassifiers>
        <_>
          <internalNodes>
            0 -1 46 2.3487140424549580e-04</internalNodes>
          <leafValues>
            -6.3636362552642822e-01 5.0000000000000000e-01</leafValues></_>
        <_>
          <internalNodes>
            0 -1 27 -6.1284815892577171e-03</internalNodes>
          <leafValues>
            8.2213377952575684e-01 -4.9090695381164551e-01</leafValues></_>
        <_>
          <internalNodes>
            0 -1 58 -8.6415602709166706e-05</internalNodes>
          <leafValues>
            6.4584684371948242e-01 -5.7772654294967651e-01</leafValues></_>
        <_>
          <internalNodes>
            0 -1 52 -1.5895189790171571e-05</internalNodes>
          <leafValues>
            -8.8816559314727783e-01 4.6733164787292480e-01</leafValues></_>
        <_>
          <internalNodes>
            0 -1 51 1.3241286069387570e-05</internalNodes>
          <leafValues>
            7.0840299129486084e-01 -6.7536652088165283e-01</leafValues></_></weakClassifiers></_>
    <!-- stage 12 -->
    <_>
      <maxWeakCount>6</maxWeakCount>
      <stageThreshold>4.6341285109519958e-02</stageThreshold>
      <weakClassifiers>
        <_>
          <internalNodes>
            0 -1 62 1.6430300092906691e-05</internalNodes>
          <leafValues>
            4.9090909957885742e-01 -6.0000002384185791e-01</leafValues></_>
        <_>
          <internalNodes>
            0 -1 8 1.7891039533424191e-05</internalNodes>
          <leafValues>
            5.1605010032653809e-01 -6.9940847158432007e-01</leafValues></_>
        <_>
          <internalNodes>
            0 -1 32 -1.1972475476795807e-04</internalNodes>
          <leafValues>
            -7.4124830961227417e-01 5.1248669624328613e-01</leafValues></_>
        <_>
          <internalNodes>
            0 -1 2 -2.6973679196089506e-03</internalNodes>
          <leafValues>
            9.4289249181747437e-01 -4.5089292526245117e-01</leafValues></_>
        <_>
          <internalNodes>
            0 -1 36 -1.1189458891749382e-03</internalNodes>
          <leafValues>
            6.6967093944549561e-01 -7.0245069265365601e-01</leafValues></_>
        <_>
          <internalNodes>
            0 -1 17 -7.1480288170278072e-05</internalNodes>
          <leafValues>
            -6.0097354650497437e-01 7.9100340604782104e-01</leafValues></_></weakClassifiers></_>
    <!-- stage 13 -->
    <_>
      <maxWeakCount>6</maxWeakCount>
      <stageThreshold>-1.1299969255924225e-01</stageThreshold>
      <weakClassifiers>
        <_>
          <internalNodes>
            0 -1 14 -2.3519388923887163e-04</internalNodes>
          <leafValues>
            -7.2972971200942993e-01 4.2857143282890320e-01</leafValues></_>
        <_>
          <internalNodes>
            0 -1 42 -6.3523730204906315e-05</internalNodes>
          <leafValues>
            -7.9986298084259033e-01 4.5157155394554138e-01</leafValues></_>
        <_>
          <internalNodes>
            0 -1 40 -3.7327095866203308e-02</internalNodes>
          <leafValues>
            8.1282871961593628e-01 -5.0756341218948364e-01</leafValues></_>
        <_>
          <internalNodes>
            0 -1 50 -2.1640709019266069e-04</internalNodes>
          <leafValues>
            -6.3222545385360718e-01 6.7759001255035400e-01</leafValues></_>
        <_>
          <internalNodes>
            0 -1 31 -3.3520753495395184e-03</internalNodes>
          <leafValues>
            8.2524657249450684e-01 -5.5740010738372803e-01</leafValues></_>
        <_>
          <internalNodes>
            0 -1 7 -2.0412454614415765e-04</internalNodes>
          <leafValues>
            -7.2287869453430176e-01 6.4566528797149658e-01</leafValues></_></weakClassifiers></_></stages>
  <features>
    <_>
      <rects>
        <_>
          0 1 36 66 -1.</_>
        <_>
          0 34 36 33 2.</_></rects>
      <tilted>0</tilted></_>
    <_>
      <rects>
        <_>
          0 1 40 68 -1.</_>
        <_>
          0 18 40 34 2.</_></rects>
      <tilted>0</tilted></_>
    <_>
      <rects>
        <_>
          0 36 12 12 -1.</_>
        <_>
          4 40 4 4 9.</_></rects>
      <tilted>0</tilted></_>
    <_>
      <rects>
        <_>
          0 54 24 2 -1.</_>
        <_>
          6 54 12 2 2.</_></rects>
      <tilted>0</tilted></_>
    <_>
      <rects>
        <_>
          0 71 20 17 -1.</_>
        <_>
          10 71 10 17 2.</_></rects>
      <tilted>0</tilted></_>
    <_>
      <rects>
        <_>
          2 16 37 76 -1.</_>
        <_>
          2 35 37 38 2.</_></rects>
      <tilted>0</tilted></_>
    <_>
      <rects>
        <_>
          3 35 15 60 -1.</_>
        <_>
          8 55 5 20 9.</_></rects>
      <tilted>0</tilted></_>
    <_>
      <rects>
        <_>
          3 56 6 6 -1.</_>
        <_>
          3 58 6 2 3.</_></rects>
      <tilted>0</tilted></_>
    <_>
      <rects>
        <_>
          4 28 14 2 -1.</_>
        <_>
          4 29 14 1 2.</_></rects>
      <tilted>0</tilted></_>
    <_>
      <rects>
        <_>
          4 45 28 50 -1.</_>
        <_>
          11 45 14 50 2.</_></rects>
      <tilted>0</tilted></_>
    <_>
      <rects>
        <_>
          4 46 1 2 -1.</_>
        <_>
          4 47 1 1 2.</_></rects>
      <tilted>0</tilted></_>
    <_>
      <rects>
        <_>
          4 50 4 8 -1.</_>
        <_>
          4 50 2 4 2.</_>
        <_>
          6 54 2 4 2.</_></rects>
      <tilted>0</tilted></_>
    <_>
      <rects>
        <_>
          4 52 16 3 -1.</_>
        <_>
          8 52 8 3 2.</_></rects>
      <tilted>0</tilted></_>
    <_>
      <rects>
        <_>
          5 16 6 1 -1.</_>
        <_>
          7 18 2 1 3.</_></rects>
      <tilted>1</tilted></_>
    <_>
      <rects>
        <_>
          5 75 6 3 -1.</_>
        <_>
          4 76 6 1 3.</_></rects>
      <tilted>1</tilted></_>
    <_>
      <rects>
        <_>
          6 38 8 21 -1.</_>
        <_>
          8 38 4 21 2.</_></rects>
      <tilted>0</tilted></_>
    <_>
      <rects>
        <_>
          6 84 3 3 -1.</_>
        <_>
          7 84 1 3 3.</_></rects>
      <tilted>0</tilted></_>
    <_>
      <rects>
        <_>
          7 11 4 38 -1.</_>
        <_>
          7 11 2 19 2.</_>
        <_>
          9 30 2 19 2.</_></rects>
      <tilted>0</tilted></_>
    <_>
      <rects>
        <_>
          7 44 8 48 -1.</_>
        <_>
          7 44 4 24 2.</_>
        <_>
          11 68 4 24 2.</_></rects>
      <tilted>0</tilted></_>
    <_>
      <rects>
        <_>
          8 74 18 1 -1.</_>
        <_>
          14 74 6 1 3.</_></rects>
      <tilted>0</tilted></_>
    <_>
      <rects>
        <_>
          8 75 24 14 -1.</_>
        <_>
          14 75 12 14 2.</_></rects>
      <tilted>0</tilted></_>
    <_>
      <rects>
        <_>
          9 27 12 3 -1.</_>
        <_>
          9 28 12 1 3.</_></rects>
      <tilted>0</tilted></_>
    <_>
      <rects>
        <_>
          10 8 8 2 -1.</_>
        <_>
          12 8 4 2 2.</_></rects>
      <tilted>0</tilted></_>
    <_>
      <rects>
        <_>
          10 21 26 3 -1.</_>
        <_>
          10 21 13 3 2.</_></rects>
      <tilted>1</tilted></_>
    <_>
      <rects>
        <_>
          10 22 18 12 -1.</_>
        <_>
          16 22 6 12 3.</_></rects>
      <tilted>0</tilted></_>
    <_>
      <rects>
        <_>
          10 24 30 12 -1.</_>
        <_>
          10 28 30 4 3.</_></rects>
      <tilted>0</tilted></_>
    <_>
      <rects>
        <_>
          11 52 12 6 -1.</_>
        <_>
          14 55 6 6 2.</_></rects>
      <tilted>1</tilted></_>
    <_>
      <rects>
        <_>
          11 59 15 8 -1.</_>
        <_>
          16 64 5 8 3.</_></rects>
      <tilted>1</tilted></_>
    <_>
      <rects>
        <_>
          11 72 3 6 -1.</_>
        <_>
          11 74 3 2 3.</_></rects>
      <tilted>0</tilted></_>
    <_>
      <rects>
        <_>
          12 68 15 3 -1.</_>
        <_>
          12 69 15 1 3.</_></rects>
      <tilted>0</tilted></_>
    <_>
      <rects>
        <_>
          12 82 3 1 -1.</_>
        <_>
          13 83 1 1 3.</_></rects>
      <tilted>1</tilted></_>
    <_>
      <rects>
        <_>
          13 4 10 12 -1.</_>
        <_>
          13 7 10 6 2.</_></rects>
      <tilted>0</tilted></_>
    <_>
      <rects>
        <_>
          13 29 3 11 -1.</_>
        <_>
          14 29 1 11 3.</_></rects>
      <tilted>0</tilted></_>
    <_>
      <rects>
        <_>
          13 35 8 2 -1.</_>
        <_>
          15 37 4 2 2.</_></rects>
      <tilted>1</tilted></_>
    <_>
      <rects>
        <_>
          13 38 2 3 -1.</_>
        <_>
          13 38 1 3 2.</_></rects>
      <tilted>1</tilted></_>
    <_>
      <rects>
        <_>
          13 63 3 3 -1.</_>
        <_>
          13 64 3 1 3.</_></rects>
      <tilted>0</tilted></_>
    <_>
      <rects>
        <_>
          14 44 6 18 -1.</_>
        <_>
          16 50 2 6 9.</_></rects>
      <tilted>0</tilted></_>
    <_>
      <rects>
        <_>
          14 80 22 2 -1.</_>
        <_>
          14 81 22 1 2.</_></rects>
      <tilted>0</tilted></_>
    <_>
      <rects>
        <_>
          15 15 4 12 -1.</_>
        <_>
          16 16 2 12 2.</_></rects>
      <tilted>1</tilted></_>
    <_>
      <rects>
        <_>
          17 4 13 56 -1.</_>
        <_>
          17 32 13 28 2.</_></rects>
      <tilted>0</tilted></_>
    <_>
      <rects>
        <_>
          17 22 18 61 -1.</_>
        <_>
          23 22 6 61 3.</_></rects>
      <tilted>0</tilted></_>
    <_>
      <rects>
        <_>
          17 79 11 3 -1.</_>
        <_>
          17 80 11 1 3.</_></rects>
      <tilted>0</tilted></_>
    <_>
      <rects>
        <_>
          18 31 5 3 -1.</_>
        <_>
          18 32 5 1 3.</_></rects>
      <tilted>0</tilted></_>
    <_>
      <rects>
        <_>
          18 54 3 2 -1.</_>
        <_>
          18 55 3 1 2.</_></rects>
      <tilted>0</tilted></_>
    <_>
      <rects>
        <_>
          20 54 20 27 -1.</_>
        <_>
          30 54 10 27 2.</_></rects>
      <tilted>0</tilted></_>
    <_>
      <rects>
        <_>
          20 62 9 18 -1.</_>
        <_>
          23 68 3 6 9.</_></rects>
      <tilted>0</tilted></_>
    <_>
      <rects>
        <_>
          20 91 20 1 -1.</_>
        <_>
          30 91 10 1 2.</_></rects>
      <tilted>0</tilted></_>
    <_>
      <rects>
        <_>
          21 52 4 7 -1.</_>
        <_>
          22 52 2 7 2.</_></rects>
      <tilted>0</tilted></_>
    <_>
      <rects>
        <_>
          21 67 7 3 -1.</_>
        <_>
          21 68 7 1 3.</_></rects>
      <tilted>0</tilted></_>
    <_>
      <rects>
        <_>
          22 3 4 14 -1.</_>
        <_>
          22 3 2 7 2.</_>
        <_>
          24 10 2 7 2.</_></rects>
      <tilted>0</tilted></_>
    <_>
      <rects>
        <_>
          22 25 6 16 -1.</_>
        <_>
          22 25 3 8 2.</_>
        <_>
          25 33 3 8 2.</_></rects>
      <tilted>0</tilted></_>
    <_>
      <rects>
        <_>
          22 33 4 1 -1.</_>
        <_>
          22 33 2 1 2.</_></rects>
      <tilted>1</tilted></_>
    <_>
      <rects>
        <_>
          22 44 4 1 -1.</_>
        <_>
          23 44 2 1 2.</_></rects>
      <tilted>0</tilted></_>
    <_>
      <rects>
        <_>
          22 69 4 2 -1.</_>
        <_>
          22 69 2 1 2.</_>
        <_>
          24 70 2 1 2.</_></rects>
      <tilted>0</tilted></_>
    <_>
      <rects>
        <_>
          24 29 12 15 -1.</_>
        <_>
          27 29 6 15 2.</_></rects>
      <tilted>0</tilted></_>
    <_>
      <rects>
        <_>
          24 92 15 2 -1.</_>
        <_>
          29 92 5 2 3.</_></rects>
      <tilted>0</tilted></_>
    <_>
      <rects>
        <_>
          26 3 4 16 -1.</_>
        <_>
          27 3 2 16 2.</_></rects>
      <tilted>0</tilted></_>
    <_>
      <rects>
        <_>
          26 51 12 36 -1.</_>
        <_>
          26 51 6 18 2.</_>
        <_>
          32 69 6 18 2.</_></rects>
      <tilted>0</tilted></_>
    <_>
      <rects>
        <_>
          27 25 2 10 -1.</_>
        <_>
          27 30 2 5 2.</_></rects>
      <tilted>0</tilted></_>
    <_>
      <rects>
        <_>
          28 15 3 27 -1.</_>
        <_>
          28 24 3 9 3.</_></rects>
      <tilted>0</tilted></_>
    <_>
      <rects>
        <_>
          29 52 4 5 -1.</_>
        <_>
          31 52 2 5 2.</_></rects>
      <tilted>0</tilted></_>
    <_>
      <rects>
        <_>
          32 31 4 18 -1.</_>
        <_>
          32 40 4 9 2.</_></rects>
      <tilted>0</tilted></_>
    <_>
      <rects>
        <_>
          33 76 4 1 -1.</_>
        <_>
          34 76 2 1 2.</_></rects>
      <tilted>0</tilted></_>
    <_>
      <rects>
        <_>
          33 87 2 3 -1.</_>
        <_>
          34 87 1 3 2.</_></rects>
      <tilted>0</tilted></_>
    <_>
      <rects>
        <_>
          34 41 6 11 -1.</_>
        <_>
          37 41 3 11 2.</_></rects>
      <tilted>0</tilted></_>
    <_>
      <rects>
        <_>
          35 4 3 20 -1.</_>
        <_>
          30 9 3 10 2.</_></rects>
      <tilted>1</tilted></_></features></cascade>
</opencv_storage>
