<?xml version="1.0"?>
<opencv_storage>
<stage12>
  <maxWeakCount>6</maxWeakCount>
  <stageThreshold>4.6341285109519958e-02</stageThreshold>
  <weakClassifiers>
    <_>
      <internalNodes>
        0 -1 10434074 1.6430300092906691e-05</internalNodes>
      <leafValues>
        4.9090909957885742e-01 -6.0000002384185791e-01</leafValues></_>
    <_>
      <internalNodes>
        0 -1 1980761 1.7891039533424191e-05</internalNodes>
      <leafValues>
        5.1605010032653809e-01 -6.9940847158432007e-01</leafValues></_>
    <_>
      <internalNodes>
        0 -1 5518144 -1.1972475476795807e-04</internalNodes>
      <leafValues>
        -7.4124830961227417e-01 5.1248669624328613e-01</leafValues></_>
    <_>
      <internalNodes>
        0 -1 280036 -2.6973679196089506e-03</internalNodes>
      <leafValues>
        9.4289249181747437e-01 -4.5089292526245117e-01</leafValues></_>
    <_>
      <internalNodes>
        0 -1 5935834 -1.1189458891749382e-03</internalNodes>
      <leafValues>
        6.6967093944549561e-01 -7.0245069265365601e-01</leafValues></_>
    <_>
      <internalNodes>
        0 -1 3109026 -7.1480288170278072e-05</internalNodes>
      <leafValues>
        -6.0097354650497437e-01 7.9100340604782104e-01</leafValues></_></weakClassifiers></stage12>
</opencv_storage>
